<?xml version="1.0" encoding="UTF-8"?>
<BIF VERSION="0.3"  xmlns="http://www.cs.ubc.ca/labs/lci/fopi/ve/XMLBIFv0_3"
	xmlns:xsi="http://www.w3.org/2001/XMLSchema-instance"
	xsi:schemaLocation="http://www.cs.ubc.ca/labs/lci/fopi/ve/XMLBIFv0_3 http://www.cs.ubc.ca/labs/lci/fopi/ve/XMLBIFv0_3/XMLBIFv0_3.xsd">
<NETWORK>
<NAME>Untitled</NAME>
<PROPERTY>detailed = </PROPERTY>
<PROPERTY>short = </PROPERTY>

<VARIABLE TYPE="nature">
	<NAME>Treatment</NAME>
	<OUTCOME>Surgery</OUTCOME>
	<OUTCOME>Radiotherapy</OUTCOME>
	<PROPERTY>position = (7920.99951171875, 5272.740234375)</PROPERTY>
</VARIABLE>

<VARIABLE TYPE="nature">
	<NAME>Risk of brain cancer</NAME>
	<OUTCOME>Family history</OUTCOME>
	<OUTCOME>Processed meat</OUTCOME>
	<OUTCOME>Smoking</OUTCOME>
	<OUTCOME>Mobile usage</OUTCOME>
	<PROPERTY>position = (7092.00048828125, 5191.15234375)</PROPERTY>
</VARIABLE>

<VARIABLE TYPE="nature">
	<NAME>Recurrence</NAME>
	<OUTCOME>T</OUTCOME>
	<OUTCOME>F</OUTCOME>
	<PROPERTY>position = (7715.716796875, 5379.33203125)</PROPERTY>
</VARIABLE>

<VARIABLE TYPE="nature">
	<NAME>Gender</NAME>
	<OUTCOME>Male</OUTCOME>
	<OUTCOME>Female</OUTCOME>
	<PROPERTY>position = (7326.2216796875, 5081.93603515625)</PROPERTY>
</VARIABLE>

<VARIABLE TYPE="nature">
	<NAME>Skin color</NAME>
	<OUTCOME>Black</OUTCOME>
	<OUTCOME>White</OUTCOME>
	<PROPERTY>position = (7720.98779296875, 5076.66748046875)</PROPERTY>
</VARIABLE>

<VARIABLE TYPE="nature">
	<NAME>Age</NAME>
	<OUTCOME>&lt;45</OUTCOME>
	<OUTCOME>45-54</OUTCOME>
	<OUTCOME>55-64</OUTCOME>
	<OUTCOME>65-74</OUTCOME>
	<OUTCOME>75+</OUTCOME>
	<PROPERTY>position = (7323.5947265625, 5243.79443359375)</PROPERTY>
</VARIABLE>

<VARIABLE TYPE="nature">
	<NAME>Stage</NAME>
	<OUTCOME>All</OUTCOME>
	<OUTCOME>Localized</OUTCOME>
	<OUTCOME>Regional</OUTCOME>
	<OUTCOME>Distant</OUTCOME>
	<OUTCOME>Unstaged</OUTCOME>
	<PROPERTY>position = (7720.98779296875, 5213.5283203125)</PROPERTY>
</VARIABLE>

<DEFINITION>
	<FOR>Treatment</FOR>
	<GIVEN>Stage</GIVEN>
	<TABLE>0.85 0.15 0.1 0.9 0.25 0.75 0.4 0.6 0.2 0.8</TABLE>
</DEFINITION>

<DEFINITION>
	<FOR>Risk of brain cancer</FOR>
	<GIVEN>Gender</GIVEN>
	<TABLE>0.1019 0.6527 0.2446 8.0E-4 0.0877 0.5614 0.3508 1.0E-4</TABLE>
</DEFINITION>

<DEFINITION>
	<FOR>Recurrence</FOR>
	<GIVEN>Stage</GIVEN>
	<TABLE>0.5586 0.4414 0.0949 0.9051 0.1061 0.8939 0.1229 0.8771 0.1173 0.8827</TABLE>
</DEFINITION>

<DEFINITION>
	<FOR>Gender</FOR>
	<TABLE>0.684 0.316</TABLE>
</DEFINITION>

<DEFINITION>
	<FOR>Skin color</FOR>
	<TABLE>0.3587 0.6413</TABLE>
</DEFINITION>

<DEFINITION>
	<FOR>Age</FOR>
	<GIVEN>Gender</GIVEN>
	<GIVEN>Skin color</GIVEN>
	<TABLE>0.508 0.2104 0.1024 0.0872 0.092 0.5553 0.2387 0.1132 0.059 0.0338 0.4835 0.2319 0.1667 0.0515 0.0664 0.513 0.2607 0.1215 0.0777 0.0271</TABLE>
</DEFINITION>

<DEFINITION>
	<FOR>Stage</FOR>
	<GIVEN>Gender</GIVEN>
	<GIVEN>Skin color</GIVEN>
	<TABLE>0.2106 0.2254 0.1164 0.226 0.2216 0.2258 0.2451 0.1389 0.2072 0.183 0.1979 0.2043 0.1533 0.2229 0.2216 0.2207 0.2412 0.1308 0.2333 0.174</TABLE>
</DEFINITION>
</NETWORK>
</BIF>
